net
{
	name = "R_data_framewekafilterssupervisedattributeDiscretizeRfirstlastprecision6wekafiltersunsupervisedattributeReplaceMissingValues";
	label = "R_data_frame-weka.filters.supervised.attribute.Discretize-Rfirst-last-precision6-weka.filters.unsupervised.attribute.ReplaceMissingValues";
	node_size = (130 55);
}

node Class
{
	states = ("0" "1" );
	position = (45 0);
	label = "Class";
}
node V1
{
	states = ("'(-inf--6.25855]'" "'(-6.25855--4.0793]'" "'(-4.0793--2.8126]'" "'(-2.8126--1.5459]'" "'(-1.5459-2.89435]'" "'(2.89435-inf)'" );
	position = (0 90);
	label = "V1";
}
node V3
{
	states = ("'(-inf--3.31655]'" "'(-3.31655--2.1997]'" "'(-2.1997--1.58675]'" "'(-1.58675--0.4018]'" "'(-0.4018-1.28715]'" "'(1.28715-2.43125]'" "'(2.43125-3.085]'" "'(3.085-6.25855]'" "'(6.25855-inf)'" );
	position = (90 90);
	label = "V3";
}
node V2
{
	states = ("'(-inf-3.69795]'" "'(3.69795-9.06435]'" "'(9.06435-9.21415]'" "'(9.21415-9.40485]'" "'(9.40485-9.7113]'" "'(9.7113-9.902]'" "'(9.902-10.2085]'" "'(10.2085-12.197]'" "'(12.197-inf)'" );
	position = (45 90);
	label = "V2";
}
potential ( Class | )
{
	data = (	0.974001058038076	0.02599894196192402	);
}
potential ( V1 | Class )
{
	data = ((	0.06967542780142039	0.10779083277759827	0.11409527476229435	0.1658852000302503	0.49996562463476174	0.04258763999367493	)
		(	1.287001287001287E-4	0.011196911196911196	0.051351351351351354	0.1731016731016731	0.7383526383526383	0.025868725868725868	));
}
potential ( V3 | Class )
{
	data = ((	0.05985720620537694	0.07366221051944079	0.06449095765342426	0.2285560089237528	0.297642905513408	0.08517096411592628	0.03276969774053055	0.07642596138311293	0.08142408794502748	)
		(	0.0096487842531841	0.028946352759552298	0.04412710665122861	0.2365881898880741	0.42570436125048244	0.15939791586260132	0.024829538144860414	0.015309404348385437	0.05544834684163129	));
}
potential ( V2 | Class )
{
	data = ((	0.03177282242900701	0.5184267245083514	0.03191719747412421	0.035361573550491736	0.05635095510967347	0.027200946000295625	0.03503844844951514	0.1578672368335115	0.10606409564502989	)
		(	0.002701659590891548	0.33899395342853467	0.03717998198893606	0.07397401260774476	0.22706805609159914	0.05879325871606844	0.05158883314035765	0.14550366653801622	0.06419657789785153	));
}
