net
{
	name = "R_data_framewekafilterssupervisedattributeDiscretizeRfirstlastprecision6wekafiltersunsupervisedattributeReplaceMissingValues";
	label = "R_data_frame-weka.filters.supervised.attribute.Discretize-Rfirst-last-precision6-weka.filters.unsupervised.attribute.ReplaceMissingValues";
	node_size = (130 55);
}

node Class
{
	states = ("0" "1" );
	position = (45 0);
	label = "Class";
}
node V1
{
	states = ("'(-inf--9.364]'" "'(-9.364--8.17905]'" "'(-8.17905--5.45495]'" "'(-5.45495--2.547]'" "'(-2.547--2.1248]'" "'(-2.1248--1.35525]'" "'(-1.35525-inf)'" );
	position = (0 90);
	label = "V1";
}
node V2
{
	states = ("'(-inf--0.020431]'" "'(-0.020431-2.04985]'" "'(2.04985-4.2291]'" "'(4.2291-5.346]'" "'(5.346-6.4901]'" "'(6.4901-9.02345]'" "'(9.02345-9.25505]'" "'(9.25505-11.4755]'" "'(11.4755-14.8805]'" "'(14.8805-inf)'" );
	position = (45 90);
	label = "V2";
}
node V3
{
	states = ("'(-inf--5.346]'" "'(-5.346--2.7377]'" "'(-2.7377--1.5527]'" "'(-1.5527--0.86489]'" "'(-0.86489-0.44266]'" "'(0.44266-2.04985]'" "'(2.04985-7.79765]'" "'(7.79765-9.9769]'" "'(9.9769-inf)'" );
	position = (90 90);
	label = "V3";
}
potential ( Class | )
{
	data = (	0.9660523795812044	0.03394762041879558	);
}
potential ( V1 | Class )
{
	data = ((	0.011988230115792647	0.014587586168653152	0.061632464917357806	0.21288032911313437	0.04751969445436051	0.12738577563051715	0.5240059196001844	)
		(	9.857072449482504E-5	0.010349926071956629	0.22148841793987187	0.46357811729916215	0.0637752587481518	0.08013799901429275	0.16057171020206998	));
}
potential ( V2 | Class )
{
	data = ((	0.008487675714642194	0.007780658219424959	0.024139102226411954	0.05119291873457731	0.09364169462389442	0.3521120414783597	0.046715141264868164	0.2652736573599135	0.13787880888346687	0.012778301494440902	)
		(	9.854158454867954E-5	0.0030547891210090656	0.0862238864800946	0.0948955459203784	0.0948955459203784	0.23521876231769806	0.06612140323216398	0.23876625936145054	0.17648797792668505	0.00423728813559322	));
}
potential ( V3 | Class )
{
	data = ((	0.008660994333443084	0.07742908139393834	0.1062020205520994	0.11964233108635002	0.2842462786143795	0.18876392811963885	0.16500944426152805	0.038882631223248476	0.011163290415374219	)
		(	0.0038435005420321276	0.2283433527150882	0.19325909135705135	0.164087907755987	0.2370158667586479	0.08918892283433527	0.0351828126539864	0.045037942248940574	0.004040603133931211	));
}
