net
{
	name = "unimib5classwekafilterssupervisedattributeDiscretizeRfirstlastprecision6wekafiltersunsupervisedattributeRemoveVR1359121417192022wekafiltersunsupervisedattributeReplaceMissingValues";
	label = "unimib5class-weka.filters.supervised.attribute.Discretize-Rfirst-last-precision6-weka.filters.unsupervised.attribute.Remove-V-R1,3,5-9,12,14-17,19-20,22-weka.filters.unsupervised.attribute.ReplaceMissingValues";
	node_size = (130 55);
}

node F6
{
	states = ("'(-inf-0.42684]'" "'(0.42684-2.11815]'" "'(2.11815-2.66425]'" "'(2.66425-2.8481]'" "'(2.8481-inf)'" );
	position = (135 90);
	label = "F6";
}
node F14
{
	states = ("'(-inf--0.346855]'" "'(-0.346855-0.33416]'" "'(0.33416-inf)'" );
	position = (360 90);
	label = "F14";
}
node F17
{
	states = ("'(-inf--19.5745]'" "'(-19.5745--18.8355]'" "'(-18.8355--10.652]'" "'(-10.652-inf)'" );
	position = (495 90);
	label = "F17";
}
node F19
{
	states = ("'(-inf-0.67165]'" "'(0.67165-2.2266]'" "'(2.2266-3.5181]'" "'(3.5181-inf)'" );
	position = (540 90);
	label = "F19";
}
node F1
{
	states = ("'(-inf--1.012865]'" "'(-1.012865-inf)'" );
	position = (0 90);
	label = "F1";
}
node F3
{
	states = ("'(-inf--0.337975]'" "'(-0.337975-0.6643]'" "'(0.6643-inf)'" );
	position = (45 90);
	label = "F3";
}
node F16
{
	states = ("'(-inf--9.15795]'" "'(-9.15795--5.9582]'" "'(-5.9582--4.0595]'" "'(-4.0595--1.2505]'" "'(-1.2505-inf)'" );
	position = (450 90);
	label = "F16";
}
node F12
{
	states = ("'(-inf-2.69]'" "'(2.69-5.1829]'" "'(5.1829-inf)'" );
	position = (315 90);
	label = "F12";
}
node F15
{
	states = ("'(-inf--0.764245]'" "'(-0.764245-inf)'" );
	position = (405 90);
	label = "F15";
}
node F9
{
	states = ("'(-inf--0.68336]'" "'(-0.68336-0.482105]'" "'(0.482105-inf)'" );
	position = (270 90);
	label = "F9";
}
node F5
{
	states = ("'(-inf-0.24502]'" "'(0.24502-3.5167]'" "'(3.5167-6.5992]'" "'(6.5992-inf)'" );
	position = (90 90);
	label = "F5";
}
node F8
{
	states = ("'(-inf--10.3305]'" "'(-10.3305--10.049]'" "'(-10.049--9.54195]'" "'(-9.54195-inf)'" );
	position = (225 90);
	label = "F8";
}
node F7
{
	states = ("'(-inf--1.201]'" "'(-1.201-inf)'" );
	position = (180 90);
	label = "F7";
}
node Class
{
	states = ("1" "2" "3" "4" "5" );
	position = (270 0);
	label = "Class";
}
node F20
{
	states = ("'(-inf--9.4132]'" "'(-9.4132--3.40725]'" "'(-3.40725-2.181695]'" "'(2.181695-inf)'" );
	position = (585 90);
	label = "F20";
}
potential ( F6 | Class )
{
	data = ((	0.011235955056179775	0.9550561797752809	0.011235955056179775	0.011235955056179775	0.011235955056179775	)
		(	0.014492753623188406	0.043478260869565216	0.014492753623188406	0.014492753623188406	0.9130434782608695	)
		(	0.024390243902439025	0.5121951219512195	0.4146341463414634	0.024390243902439025	0.024390243902439025	)
		(	0.07317073170731707	0.8536585365853658	0.024390243902439025	0.024390243902439025	0.024390243902439025	)
		(	0.4117647058823529	0.29411764705882354	0.0196078431372549	0.09803921568627451	0.17647058823529413	));
}
potential ( F14 | Class )
{
	data = ((	0.7241379310344828	0.26436781609195403	0.011494252873563218	)
		(	0.014925373134328358	0.9701492537313433	0.014925373134328358	)
		(	0.4358974358974359	0.48717948717948717	0.07692307692307693	)
		(	0.8461538461538461	0.1282051282051282	0.02564102564102564	)
		(	0.14285714285714285	0.46938775510204084	0.3877551020408163	));
}
potential ( F17 | Class )
{
	data = ((	0.011363636363636364	0.011363636363636364	0.9659090909090909	0.011363636363636364	)
		(	0.2794117647058824	0.661764705882353	0.04411764705882354	0.014705882352941178	)
		(	0.025	0.025	0.925	0.025	)
		(	0.075	0.125	0.725	0.075	)
		(	0.38	0.02	0.06	0.54	));
}
potential ( F19 | Class )
{
	data = ((	0.011363636363636362	0.6931818181818181	0.28409090909090906	0.011363636363636362	)
		(	0.04411764705882353	0.014705882352941176	0.22058823529411764	0.7205882352941176	)
		(	0.47500000000000003	0.42500000000000004	0.07500000000000001	0.025000000000000005	)
		(	0.5750000000000001	0.32500000000000007	0.025000000000000005	0.07500000000000001	)
		(	0.7	0.06	0.14	0.1	));
}
potential ( F1 | Class )
{
	data = ((	0.05813953488372093	0.9418604651162791	)
		(	0.8636363636363636	0.13636363636363635	)
		(	0.8157894736842105	0.18421052631578946	)
		(	0.8157894736842105	0.18421052631578946	)
		(	0.3541666666666667	0.6458333333333334	));
}
potential ( F3 | Class )
{
	data = ((	0.034482758620689655	0.9080459770114943	0.05747126436781609	)
		(	0.6119402985074627	0.34328358208955223	0.04477611940298507	)
		(	0.3333333333333333	0.23076923076923078	0.4358974358974359	)
		(	0.02564102564102564	0.28205128205128205	0.6923076923076923	)
		(	0.5102040816326532	0.4285714285714286	0.06122448979591837	));
}
potential ( F16 | Class )
{
	data = ((	0.011235955056179775	0.011235955056179775	0.033707865168539325	0.9101123595505618	0.033707865168539325	)
		(	0.014492753623188406	0.36231884057971014	0.5072463768115942	0.10144927536231885	0.014492753623188406	)
		(	0.024390243902439025	0.3170731707317073	0.07317073170731707	0.5121951219512195	0.07317073170731707	)
		(	0.024390243902439025	0.024390243902439025	0.6585365853658537	0.21951219512195122	0.07317073170731707	)
		(	0.21568627450980393	0.09803921568627451	0.09803921568627451	0.13725490196078433	0.45098039215686275	));
}
potential ( F12 | Class )
{
	data = ((	0.05747126436781609	0.9080459770114943	0.034482758620689655	)
		(	0.04477611940298507	0.6119402985074627	0.34328358208955223	)
		(	0.5384615384615384	0.4358974358974359	0.02564102564102564	)
		(	0.5384615384615384	0.38461538461538464	0.07692307692307693	)
		(	0.14285714285714285	0.42857142857142855	0.42857142857142855	));
}
potential ( F15 | Class )
{
	data = ((	0.08139534883720931	0.9186046511627907	)
		(	0.8636363636363636	0.13636363636363635	)
		(	0.02631578947368421	0.9736842105263158	)
		(	0.2894736842105263	0.7105263157894737	)
		(	0.0625	0.9375	));
}
potential ( F9 | Class )
{
	data = ((	0.011494252873563218	0.8390804597701149	0.14942528735632185	)
		(	0.13432835820895522	0.6119402985074627	0.2537313432835821	)
		(	0.28205128205128205	0.48717948717948717	0.23076923076923078	)
		(	0.02564102564102564	0.1282051282051282	0.8461538461538461	)
		(	0.5102040816326532	0.4285714285714286	0.06122448979591837	));
}
potential ( F5 | Class )
{
	data = ((	0.011363636363636364	0.9659090909090909	0.011363636363636364	0.011363636363636364	)
		(	0.014705882352941176	0.04411764705882353	0.9264705882352942	0.014705882352941176	)
		(	0.025	0.925	0.025	0.025	)
		(	0.075	0.875	0.025	0.025	)
		(	0.5	0.1	0.18	0.22	));
}
potential ( F8 | Class )
{
	data = ((	0.03409090909090909	0.2159090909090909	0.7159090909090909	0.03409090909090909	)
		(	0.39705882352941174	0.04411764705882353	0.22058823529411764	0.3382352941176471	)
		(	0.075	0.225	0.425	0.275	)
		(	0.025	0.125	0.225	0.625	)
		(	0.02	0.74	0.1	0.14	));
}
potential ( F7 | Class )
{
	data = ((	0.011627906976744186	0.9883720930232558	)
		(	0.7424242424242424	0.25757575757575757	)
		(	0.8157894736842105	0.18421052631578946	)
		(	0.8157894736842105	0.18421052631578946	)
		(	0.10416666666666667	0.8958333333333334	));
}
potential ( Class | )
{
	data = (	0.3136531365313653	0.23985239852398518	0.13653136531365312	0.13653136531365312	0.17343173431734316	);
}
potential ( F20 | Class )
{
	data = ((	0.011363636363636364	0.9659090909090909	0.011363636363636364	0.011363636363636364	)
		(	0.014705882352941176	0.04411764705882353	0.9264705882352942	0.014705882352941176	)
		(	0.125	0.825	0.025	0.025	)
		(	0.075	0.875	0.025	0.025	)
		(	0.46	0.22	0.02	0.3	));
}
