net
{
	name = "unimib5classwekafilterssupervisedattributeDiscretizeRfirstlastprecision6wekafiltersunsupervisedattributeRemoveVR1359121417192022wekafiltersunsupervisedattributeReplaceMissingValues";
	label = "unimib5class-weka.filters.supervised.attribute.Discretize-Rfirst-last-precision6-weka.filters.unsupervised.attribute.Remove-V-R1,3,5-9,12,14-17,19-20,22-weka.filters.unsupervised.attribute.ReplaceMissingValues";
	node_size = (130 55);
}

node F6
{
	states = ("'(-inf-0.42684]'" "'(0.42684-2.11815]'" "'(2.11815-2.66425]'" "'(2.66425-2.8481]'" "'(2.8481-inf)'" );
	position = (270 180);
	label = "F6";
}
node F9
{
	states = ("'(-inf--0.68336]'" "'(-0.68336-0.482105]'" "'(0.482105-inf)'" );
	position = (315 360);
	label = "F9";
}
node F12
{
	states = ("'(-inf-2.69]'" "'(2.69-5.1829]'" "'(5.1829-inf)'" );
	position = (540 270);
	label = "F12";
}
node F5
{
	states = ("'(-inf-0.24502]'" "'(0.24502-3.5167]'" "'(3.5167-6.5992]'" "'(6.5992-inf)'" );
	position = (405 180);
	label = "F5";
}
node F14
{
	states = ("'(-inf--0.346855]'" "'(-0.346855-0.33416]'" "'(0.33416-inf)'" );
	position = (225 270);
	label = "F14";
}
node F3
{
	states = ("'(-inf--0.337975]'" "'(-0.337975-0.6643]'" "'(0.6643-inf)'" );
	position = (180 270);
	label = "F3";
}
node F15
{
	states = ("'(-inf--0.764245]'" "'(-0.764245-inf)'" );
	position = (540 360);
	label = "F15";
}
node F17
{
	states = ("'(-inf--19.5745]'" "'(-19.5745--18.8355]'" "'(-18.8355--10.652]'" "'(-10.652-inf)'" );
	position = (405 270);
	label = "F17";
}
node F8
{
	states = ("'(-inf--10.3305]'" "'(-10.3305--10.049]'" "'(-10.049--9.54195]'" "'(-9.54195-inf)'" );
	position = (135 270);
	label = "F8";
}
node F16
{
	states = ("'(-inf--9.15795]'" "'(-9.15795--5.9582]'" "'(-5.9582--4.0595]'" "'(-4.0595--1.2505]'" "'(-1.2505-inf)'" );
	position = (270 90);
	label = "F16";
}
node F19
{
	states = ("'(-inf-0.67165]'" "'(0.67165-2.2266]'" "'(2.2266-3.5181]'" "'(3.5181-inf)'" );
	position = (360 270);
	label = "F19";
}
node F7
{
	states = ("'(-inf--1.201]'" "'(-1.201-inf)'" );
	position = (0 360);
	label = "F7";
}
node F20
{
	states = ("'(-inf--9.4132]'" "'(-9.4132--3.40725]'" "'(-3.40725-2.181695]'" "'(2.181695-inf)'" );
	position = (90 180);
	label = "F20";
}
node Class
{
	states = ("1" "2" "3" "4" "5" );
	position = (270 0);
	label = "Class";
}
node F1
{
	states = ("'(-inf--1.012865]'" "'(-1.012865-inf)'" );
	position = (45 270);
	label = "F1";
}
potential ( F6 | Class F16 )
{
	data = (((	0.2	0.2	0.2	0.2	0.2	)
		(	0.2	0.2	0.2	0.2	0.2	)
		(	0.14285714285714288	0.42857142857142866	0.14285714285714288	0.14285714285714288	0.14285714285714288	)
		(	0.011764705882352944	0.9529411764705884	0.011764705882352944	0.011764705882352944	0.011764705882352944	)
		(	0.14285714285714288	0.42857142857142866	0.14285714285714288	0.14285714285714288	0.14285714285714288	))
		((	0.2	0.2	0.2	0.2	0.2	)
		(	0.034482758620689655	0.034482758620689655	0.034482758620689655	0.034482758620689655	0.8620689655172413	)
		(	0.02564102564102564	0.02564102564102564	0.02564102564102564	0.02564102564102564	0.8974358974358975	)
		(	0.09090909090909091	0.2727272727272727	0.09090909090909091	0.09090909090909091	0.45454545454545453	)
		(	0.2	0.2	0.2	0.2	0.2	))
		((	0.2	0.2	0.2	0.2	0.2	)
		(	0.058823529411764705	0.058823529411764705	0.7647058823529411	0.058823529411764705	0.058823529411764705	)
		(	0.14285714285714288	0.42857142857142866	0.14285714285714288	0.14285714285714288	0.14285714285714288	)
		(	0.039999999999999994	0.6799999999999999	0.19999999999999996	0.039999999999999994	0.039999999999999994	)
		(	0.14285714285714288	0.42857142857142866	0.14285714285714288	0.14285714285714288	0.14285714285714288	))
		((	0.2	0.2	0.2	0.2	0.2	)
		(	0.2	0.2	0.2	0.2	0.2	)
		(	0.03225806451612904	0.870967741935484	0.03225806451612904	0.03225806451612904	0.03225806451612904	)
		(	0.07692307692307694	0.6923076923076924	0.07692307692307694	0.07692307692307694	0.07692307692307694	)
		(	0.42857142857142866	0.14285714285714288	0.14285714285714288	0.14285714285714288	0.14285714285714288	))
		((	0.06666666666666667	0.06666666666666667	0.06666666666666667	0.2	0.6	)
		(	0.1111111111111111	0.3333333333333333	0.1111111111111111	0.3333333333333333	0.1111111111111111	)
		(	0.11111111111111108	0.5555555555555555	0.11111111111111108	0.11111111111111108	0.11111111111111108	)
		(	0.2727272727272727	0.45454545454545453	0.09090909090909091	0.09090909090909091	0.09090909090909091	)
		(	0.7037037037037038	0.1851851851851852	0.03703703703703704	0.03703703703703704	0.03703703703703704	)));
}
potential ( F9 | Class F3 )
{
	data = (((	0.2	0.6	0.2	)
		(	0.012345679012345678	0.8765432098765432	0.1111111111111111	)
		(	0.14285714285714285	0.14285714285714285	0.7142857142857143	))
		((	0.20930232558139536	0.7209302325581395	0.06976744186046512	)
		(	0.04	0.44	0.52	)
		(	0.2	0.2	0.6	))
		((	0.6	0.3333333333333333	0.06666666666666667	)
		(	0.2727272727272727	0.6363636363636364	0.09090909090909091	)
		(	0.05263157894736842	0.47368421052631576	0.47368421052631576	))
		((	0.3333333333333333	0.3333333333333333	0.3333333333333333	)
		(	0.07692307692307693	0.38461538461538464	0.5384615384615384	)
		(	0.034482758620689655	0.034482758620689655	0.9310344827586207	))
		((	0.8518518518518519	0.1111111111111111	0.037037037037037035	)
		(	0.13043478260869565	0.8260869565217391	0.043478260869565216	)
		(	0.2	0.2	0.6	)));
}
potential ( F12 | Class F6 )
{
	data = (((	0.3333333333333333	0.3333333333333333	0.3333333333333333	)
		(	0.05747126436781609	0.9080459770114943	0.034482758620689655	)
		(	0.3333333333333333	0.3333333333333333	0.3333333333333333	)
		(	0.3333333333333333	0.3333333333333333	0.3333333333333333	)
		(	0.3333333333333333	0.3333333333333333	0.3333333333333333	))
		((	0.3333333333333333	0.3333333333333333	0.3333333333333333	)
		(	0.6	0.2	0.2	)
		(	0.3333333333333333	0.3333333333333333	0.3333333333333333	)
		(	0.3333333333333333	0.3333333333333333	0.3333333333333333	)
		(	0.015384615384615385	0.6307692307692307	0.35384615384615387	))
		((	0.3333333333333333	0.3333333333333333	0.3333333333333333	)
		(	0.391304347826087	0.5652173913043478	0.043478260869565216	)
		(	0.6842105263157895	0.2631578947368421	0.05263157894736842	)
		(	0.3333333333333333	0.3333333333333333	0.3333333333333333	)
		(	0.3333333333333333	0.3333333333333333	0.3333333333333333	))
		((	0.2	0.6	0.2	)
		(	0.5675675675675675	0.35135135135135137	0.08108108108108109	)
		(	0.3333333333333333	0.3333333333333333	0.3333333333333333	)
		(	0.3333333333333333	0.3333333333333333	0.3333333333333333	)
		(	0.3333333333333333	0.3333333333333333	0.3333333333333333	))
		((	0.2173913043478261	0.7391304347826088	0.04347826086956522	)
		(	0.17647058823529413	0.29411764705882354	0.5294117647058824	)
		(	0.3333333333333333	0.3333333333333333	0.3333333333333333	)
		(	0.14285714285714285	0.14285714285714285	0.7142857142857143	)
		(	0.09090909090909091	0.09090909090909091	0.8181818181818182	)));
}
potential ( F5 | Class F16 )
{
	data = (((	0.25	0.25	0.25	0.25	)
		(	0.25	0.25	0.25	0.25	)
		(	0.16666666666666669	0.5000000000000001	0.16666666666666669	0.16666666666666669	)
		(	0.011904761904761906	0.9642857142857144	0.011904761904761906	0.011904761904761906	)
		(	0.16666666666666669	0.5000000000000001	0.16666666666666669	0.16666666666666669	))
		((	0.25	0.25	0.25	0.25	)
		(	0.03571428571428571	0.03571428571428571	0.8928571428571429	0.03571428571428571	)
		(	0.026315789473684213	0.026315789473684213	0.9210526315789475	0.026315789473684213	)
		(	0.1	0.3	0.5	0.1	)
		(	0.25	0.25	0.25	0.25	))
		((	0.25	0.25	0.25	0.25	)
		(	0.0625	0.8125	0.0625	0.0625	)
		(	0.16666666666666669	0.5000000000000001	0.16666666666666669	0.16666666666666669	)
		(	0.04166666666666667	0.8750000000000001	0.04166666666666667	0.04166666666666667	)
		(	0.16666666666666669	0.5000000000000001	0.16666666666666669	0.16666666666666669	))
		((	0.25	0.25	0.25	0.25	)
		(	0.25	0.25	0.25	0.25	)
		(	0.03333333333333333	0.9	0.03333333333333333	0.03333333333333333	)
		(	0.08333333333333333	0.75	0.08333333333333333	0.08333333333333333	)
		(	0.5000000000000001	0.16666666666666669	0.16666666666666669	0.16666666666666669	))
		((	0.07142857142857142	0.07142857142857142	0.07142857142857142	0.7857142857142857	)
		(	0.125	0.125	0.625	0.125	)
		(	0.125	0.125	0.625	0.125	)
		(	0.3	0.5	0.1	0.1	)
		(	0.8846153846153847	0.03846153846153847	0.03846153846153847	0.03846153846153847	)));
}
potential ( F14 | Class F6 )
{
	data = (((	0.3333333333333333	0.3333333333333333	0.3333333333333333	)
		(	0.7241379310344828	0.26436781609195403	0.011494252873563218	)
		(	0.3333333333333333	0.3333333333333333	0.3333333333333333	)
		(	0.3333333333333333	0.3333333333333333	0.3333333333333333	)
		(	0.3333333333333333	0.3333333333333333	0.3333333333333333	))
		((	0.3333333333333333	0.3333333333333333	0.3333333333333333	)
		(	0.2	0.6	0.2	)
		(	0.3333333333333333	0.3333333333333333	0.3333333333333333	)
		(	0.3333333333333333	0.3333333333333333	0.3333333333333333	)
		(	0.015384615384615385	0.9692307692307692	0.015384615384615385	))
		((	0.3333333333333333	0.3333333333333333	0.3333333333333333	)
		(	0.6521739130434783	0.21739130434782608	0.13043478260869565	)
		(	0.15789473684210525	0.7894736842105263	0.05263157894736842	)
		(	0.3333333333333333	0.3333333333333333	0.3333333333333333	)
		(	0.3333333333333333	0.3333333333333333	0.3333333333333333	))
		((	0.6	0.2	0.2	)
		(	0.8378378378378378	0.13513513513513514	0.02702702702702703	)
		(	0.3333333333333333	0.3333333333333333	0.3333333333333333	)
		(	0.3333333333333333	0.3333333333333333	0.3333333333333333	)
		(	0.3333333333333333	0.3333333333333333	0.3333333333333333	))
		((	0.043478260869565216	0.5652173913043478	0.391304347826087	)
		(	0.4117647058823529	0.058823529411764705	0.5294117647058824	)
		(	0.3333333333333333	0.3333333333333333	0.3333333333333333	)
		(	0.14285714285714285	0.42857142857142855	0.42857142857142855	)
		(	0.09090909090909091	0.8181818181818182	0.09090909090909091	)));
}
potential ( F3 | Class F6 )
{
	data = (((	0.3333333333333333	0.3333333333333333	0.3333333333333333	)
		(	0.034482758620689655	0.9080459770114943	0.05747126436781609	)
		(	0.3333333333333333	0.3333333333333333	0.3333333333333333	)
		(	0.3333333333333333	0.3333333333333333	0.3333333333333333	)
		(	0.3333333333333333	0.3333333333333333	0.3333333333333333	))
		((	0.3333333333333333	0.3333333333333333	0.3333333333333333	)
		(	0.2	0.2	0.6	)
		(	0.3333333333333333	0.3333333333333333	0.3333333333333333	)
		(	0.3333333333333333	0.3333333333333333	0.3333333333333333	)
		(	0.6307692307692307	0.35384615384615387	0.015384615384615385	))
		((	0.3333333333333333	0.3333333333333333	0.3333333333333333	)
		(	0.5652173913043478	0.391304347826087	0.043478260869565216	)
		(	0.05263157894736842	0.05263157894736842	0.8947368421052632	)
		(	0.3333333333333333	0.3333333333333333	0.3333333333333333	)
		(	0.3333333333333333	0.3333333333333333	0.3333333333333333	))
		((	0.2	0.6	0.2	)
		(	0.02702702702702703	0.24324324324324326	0.7297297297297297	)
		(	0.3333333333333333	0.3333333333333333	0.3333333333333333	)
		(	0.3333333333333333	0.3333333333333333	0.3333333333333333	)
		(	0.3333333333333333	0.3333333333333333	0.3333333333333333	))
		((	0.8260869565217391	0.13043478260869565	0.043478260869565216	)
		(	0.4117647058823529	0.5294117647058824	0.058823529411764705	)
		(	0.3333333333333333	0.3333333333333333	0.3333333333333333	)
		(	0.14285714285714285	0.7142857142857143	0.14285714285714285	)
		(	0.09090909090909091	0.6363636363636364	0.2727272727272727	)));
}
potential ( F15 | Class F12 )
{
	data = (((	0.16666666666666666	0.8333333333333334	)
		(	0.0625	0.9375	)
		(	0.75	0.25	))
		((	0.25	0.75	)
		(	0.8333333333333334	0.16666666666666666	)
		(	0.9583333333333334	0.041666666666666664	))
		((	0.045454545454545456	0.9545454545454546	)
		(	0.05555555555555555	0.9444444444444444	)
		(	0.5	0.5	))
		((	0.13636363636363635	0.8636363636363636	)
		(	0.4375	0.5625	)
		(	0.75	0.25	))
		((	0.125	0.875	)
		(	0.045454545454545456	0.9545454545454546	)
		(	0.13636363636363635	0.8636363636363636	)));
}
potential ( F17 | Class F5 )
{
	data = (((	0.25	0.25	0.25	0.25	)
		(	0.011363636363636364	0.011363636363636364	0.9659090909090909	0.011363636363636364	)
		(	0.25	0.25	0.25	0.25	)
		(	0.25	0.25	0.25	0.25	))
		((	0.25	0.25	0.25	0.25	)
		(	0.16666666666666669	0.16666666666666669	0.5000000000000001	0.16666666666666669	)
		(	0.2878787878787879	0.6818181818181818	0.015151515151515152	0.015151515151515152	)
		(	0.25	0.25	0.25	0.25	))
		((	0.25	0.25	0.25	0.25	)
		(	0.025	0.025	0.925	0.025	)
		(	0.25	0.25	0.25	0.25	)
		(	0.25	0.25	0.25	0.25	))
		((	0.16666666666666666	0.16666666666666666	0.16666666666666666	0.5	)
		(	0.07894736842105263	0.13157894736842105	0.7631578947368421	0.02631578947368421	)
		(	0.25	0.25	0.25	0.25	)
		(	0.25	0.25	0.25	0.25	))
		((	0.03571428571428571	0.03571428571428571	0.03571428571428571	0.8928571428571429	)
		(	0.125	0.125	0.375	0.375	)
		(	0.75	0.08333333333333333	0.08333333333333333	0.08333333333333333	)
		(	0.7857142857142858	0.07142857142857144	0.07142857142857144	0.07142857142857144	)));
}
potential ( F8 | Class F6 )
{
	data = (((	0.25	0.25	0.25	0.25	)
		(	0.03409090909090909	0.2159090909090909	0.7159090909090909	0.03409090909090909	)
		(	0.25	0.25	0.25	0.25	)
		(	0.25	0.25	0.25	0.25	)
		(	0.25	0.25	0.25	0.25	))
		((	0.25	0.25	0.25	0.25	)
		(	0.16666666666666669	0.16666666666666669	0.5000000000000001	0.16666666666666669	)
		(	0.25	0.25	0.25	0.25	)
		(	0.25	0.25	0.25	0.25	)
		(	0.4090909090909091	0.045454545454545456	0.19696969696969696	0.3484848484848485	))
		((	0.25	0.25	0.25	0.25	)
		(	0.12500000000000003	0.37500000000000006	0.45833333333333337	0.04166666666666667	)
		(	0.05	0.05	0.35	0.55	)
		(	0.25	0.25	0.25	0.25	)
		(	0.25	0.25	0.25	0.25	))
		((	0.16666666666666669	0.5000000000000001	0.16666666666666669	0.16666666666666669	)
		(	0.02631578947368421	0.07894736842105263	0.23684210526315788	0.6578947368421053	)
		(	0.25	0.25	0.25	0.25	)
		(	0.25	0.25	0.25	0.25	)
		(	0.25	0.25	0.25	0.25	))
		((	0.04166666666666667	0.8750000000000001	0.04166666666666667	0.04166666666666667	)
		(	0.05555555555555555	0.8333333333333334	0.05555555555555555	0.05555555555555555	)
		(	0.25	0.25	0.25	0.25	)
		(	0.125	0.375	0.375	0.125	)
		(	0.08333333333333333	0.08333333333333333	0.25	0.5833333333333334	)));
}
potential ( F16 | Class )
{
	data = ((	0.011235955056179775	0.011235955056179775	0.033707865168539325	0.9101123595505618	0.033707865168539325	)
		(	0.014492753623188406	0.36231884057971014	0.5072463768115942	0.10144927536231885	0.014492753623188406	)
		(	0.024390243902439025	0.3170731707317073	0.07317073170731707	0.5121951219512195	0.07317073170731707	)
		(	0.024390243902439025	0.024390243902439025	0.6585365853658537	0.21951219512195122	0.07317073170731707	)
		(	0.21568627450980393	0.09803921568627451	0.09803921568627451	0.13725490196078433	0.45098039215686275	));
}
potential ( F19 | Class F5 )
{
	data = (((	0.25	0.25	0.25	0.25	)
		(	0.011363636363636362	0.6931818181818181	0.28409090909090906	0.011363636363636362	)
		(	0.25	0.25	0.25	0.25	)
		(	0.25	0.25	0.25	0.25	))
		((	0.25	0.25	0.25	0.25	)
		(	0.5000000000000001	0.16666666666666669	0.16666666666666669	0.16666666666666669	)
		(	0.015151515151515152	0.015151515151515152	0.22727272727272727	0.7424242424242424	)
		(	0.25	0.25	0.25	0.25	))
		((	0.25	0.25	0.25	0.25	)
		(	0.47500000000000003	0.42500000000000004	0.07500000000000001	0.025000000000000005	)
		(	0.25	0.25	0.25	0.25	)
		(	0.25	0.25	0.25	0.25	))
		((	0.5000000000000001	0.16666666666666669	0.16666666666666669	0.16666666666666669	)
		(	0.5526315789473685	0.34210526315789475	0.02631578947368421	0.07894736842105263	)
		(	0.25	0.25	0.25	0.25	)
		(	0.25	0.25	0.25	0.25	))
		((	0.8928571428571429	0.03571428571428571	0.03571428571428571	0.03571428571428571	)
		(	0.625	0.125	0.125	0.125	)
		(	0.5833333333333334	0.08333333333333333	0.25	0.08333333333333333	)
		(	0.07142857142857142	0.21428571428571427	0.35714285714285715	0.35714285714285715	)));
}
potential ( F7 | Class F1 )
{
	data = (((	0.16666666666666666	0.8333333333333334	)
		(	0.012195121951219513	0.9878048780487805	))
		((	0.8103448275862069	0.1896551724137931	)
		(	0.3	0.7	))
		((	0.96875	0.03125	)
		(	0.125	0.875	))
		((	0.96875	0.03125	)
		(	0.125	0.875	))
		((	0.2777777777777778	0.7222222222222222	)
		(	0.03125	0.96875	)));
}
potential ( F20 | Class F16 )
{
	data = (((	0.25	0.25	0.25	0.25	)
		(	0.25	0.25	0.25	0.25	)
		(	0.16666666666666669	0.5000000000000001	0.16666666666666669	0.16666666666666669	)
		(	0.011904761904761906	0.9642857142857144	0.011904761904761906	0.011904761904761906	)
		(	0.16666666666666669	0.5000000000000001	0.16666666666666669	0.16666666666666669	))
		((	0.25	0.25	0.25	0.25	)
		(	0.03571428571428571	0.03571428571428571	0.8928571428571429	0.03571428571428571	)
		(	0.026315789473684213	0.026315789473684213	0.9210526315789475	0.026315789473684213	)
		(	0.1	0.3	0.5	0.1	)
		(	0.25	0.25	0.25	0.25	))
		((	0.25	0.25	0.25	0.25	)
		(	0.0625	0.8125	0.0625	0.0625	)
		(	0.16666666666666669	0.5000000000000001	0.16666666666666669	0.16666666666666669	)
		(	0.12500000000000003	0.7916666666666667	0.04166666666666667	0.04166666666666667	)
		(	0.5000000000000001	0.16666666666666669	0.16666666666666669	0.16666666666666669	))
		((	0.25	0.25	0.25	0.25	)
		(	0.25	0.25	0.25	0.25	)
		(	0.03333333333333333	0.9	0.03333333333333333	0.03333333333333333	)
		(	0.08333333333333333	0.75	0.08333333333333333	0.08333333333333333	)
		(	0.5000000000000001	0.16666666666666669	0.16666666666666669	0.16666666666666669	))
		((	0.07142857142857142	0.07142857142857142	0.07142857142857142	0.7857142857142857	)
		(	0.125	0.125	0.125	0.625	)
		(	0.125	0.625	0.125	0.125	)
		(	0.3	0.5	0.1	0.1	)
		(	0.8076923076923077	0.11538461538461539	0.038461538461538464	0.038461538461538464	)));
}
potential ( Class | )
{
	data = (	0.3136531365313653	0.23985239852398518	0.13653136531365312	0.13653136531365312	0.17343173431734316	);
}
potential ( F1 | Class F20 )
{
	data = (((	0.5	0.5	)
		(	0.05813953488372093	0.9418604651162791	)
		(	0.5	0.5	)
		(	0.5	0.5	))
		((	0.5	0.5	)
		(	0.75	0.25	)
		(	0.859375	0.140625	)
		(	0.5	0.5	))
		((	0.16666666666666666	0.8333333333333334	)
		(	0.9117647058823529	0.08823529411764706	)
		(	0.5	0.5	)
		(	0.5	0.5	))
		((	0.25	0.75	)
		(	0.8611111111111112	0.1388888888888889	)
		(	0.5	0.5	)
		(	0.5	0.5	))
		((	0.041666666666666664	0.9583333333333334	)
		(	0.4166666666666667	0.5833333333333334	)
		(	0.5	0.5	)
		(	0.8125	0.1875	)));
}
